Language model created by QuickLM on Sat Feb 23 22:44:03 EST 2019
Copyright (c) 1996-2010 Carnegie Mellon University and Alexander I. Rudnicky

The model is in standard ARPA format, designed by Doug Paul while he was at MITRE.

The code that was used to produce this language model is available in Open Source.
Please visit http://www.speech.cs.cmu.edu/tools/ for more information

The (fixed) discount mass is 0.5. The backoffs are computed using the ratio method.
This model based on a corpus of 7 sentences and 99 words

\data\
ngram 1=99
ngram 2=107
ngram 3=105

\1-grams:
-1.5423 </s> -0.3010
-1.5423 <s> -0.2866
-2.3874 ACTIONS -0.2992
-2.3874 AND -0.2975
-2.3874 ANY -0.2939
-2.3874 BACK -0.2992
-2.3874 BEND -0.2992
-2.3874 BIG -0.2992
-2.3874 BREATH -0.2992
-2.3874 BREATHE -0.2992
-2.3874 BREATHING -0.2992
-2.3874 BUTT -0.2992
-2.3874 CALFS -0.2975
-2.3874 CALVES -0.2992
-2.3874 CAUSE -0.2939
-2.3874 CHEST -0.2992
-2.3874 CHIN -0.2992
-2.0864 DO -0.2975
-2.3874 DOES -0.2939
-2.3874 DULL -0.2992
-2.3874 EIGHT -0.2992
-2.3874 EIGHTEEN -0.2992
-2.3874 EIGHTY -0.2992
-2.3874 ELEVEN -0.2992
-2.3874 EYES -0.2992
-2.3874 FACE -0.2992
-2.0864 FEEL -0.2920
-2.3874 FIFTEEN -0.2992
-2.3874 FIFTY -0.2992
-2.3874 FINGERS -0.2992
-2.3874 FIVE -0.2992
-2.3874 FOOT -0.2992
-2.3874 FOREARM -0.2992
-2.3874 FOREHEAD -0.2992
-2.3874 FORTY -0.2992
-2.3874 FOUR -0.2992
-2.3874 FOURTEEN -0.2992
-2.3874 FRONT -0.2884
-2.3874 HAND -0.2992
-2.3874 HEAD -0.2992
-2.3874 HIP -0.2992
-2.0864 HOW -0.2975
-2.3874 HUNDRED -0.2992
-2.3874 IS -0.2939
-2.3874 KNEES -0.2992
-2.3874 LEGS -0.2992
-2.3874 LITTLE -0.2992
-2.3874 LOOK? -0.2884
-2.3874 LOWER -0.2992
-2.3874 MILD -0.2992
-2.3874 MILLION -0.2992
-2.3874 MOUTH -0.2992
-2.3874 MOVE -0.2992
-2.3874 MOVING -0.2992
-2.3874 NINE -0.2992
-2.3874 NINETEEN -0.2992
-2.3874 NINETY -0.2992
-2.3874 NO -0.2992
-2.3874 NOSE -0.2992
-2.3874 ONE -0.2992
-1.7853 PAIN? -0.2884
-2.3874 PATIENT -0.2992
-2.3874 RUN -0.2992
-2.3874 SEVEN -0.2992
-2.3874 SEVENTEEN -0.2992
-2.3874 SEVENTY -0.2992
-2.3874 SEVERE -0.2992
-2.3874 SHARP -0.2992
-2.3874 SHOULDERS -0.2992
-2.3874 SIT -0.2992
-2.3874 SIX -0.2992
-2.3874 SIXTEEN -0.2992
-2.3874 SIXTY -0.2992
-2.3874 SLEEP -0.2992
-2.3874 STOMACH -0.2992
-2.3874 STRETCH -0.2992
-2.3874 STRETCHING -0.2992
-2.3874 TALK -0.2992
-2.3874 TALKING -0.2992
-2.3874 TEN -0.2992
-1.7853 THE -0.2920
-2.3874 THIRTEEN -0.2992
-2.3874 THIRTY -0.2884
-2.3874 THOUSAND -0.2992
-2.3874 THREE -0.2992
-2.3874 THROAT -0.2992
-2.0864 TOES -0.2975
-2.3874 TWELVE -0.2992
-2.3874 TWENTY -0.2992
-2.3874 TWO -0.2992
-2.3874 UPPER -0.2992
-2.3874 WALK -0.2992
-2.3874 WALKING -0.2992
-2.3874 WHAT -0.2992
-2.3874 WHERE -0.2975
-2.3874 WRIST -0.2992
-2.3874 YES -0.2992
-2.0864 YOU -0.2975
-2.3874 ZERO -0.2992

\2-grams:
-1.1461 <s> DO 0.0000
-0.8451 <s> HOW 0.0000
-1.1461 <s> NINE 0.0000
-1.1461 <s> WHAT 0.0000
-1.1461 <s> WHERE 0.0000
-1.1461 <s> YES 0.0000
-0.3010 ACTIONS CAUSE 0.0000
-0.3010 AND TOES -0.1761
-0.3010 ANY PAIN? 0.0000
-0.3010 BACK UPPER 0.0000
-0.3010 BEND SLEEP 0.0000
-0.3010 BIG HEAD 0.0000
-0.3010 BREATH STRETCH 0.0000
-0.3010 BREATHE BREATH 0.0000
-0.3010 BREATHING STRETCHING 0.0000
-0.3010 BUTT HIP 0.0000
-0.3010 CALFS TOES -0.1761
-0.3010 CALVES CALFS 0.0000
-0.3010 CAUSE THE -0.0969
-0.3010 CHEST BACK 0.0000
-0.3010 CHIN MOUTH 0.0000
-0.3010 DO YOU 0.0000
-0.3010 DOES THE -0.2430
-0.3010 DULL MILD 0.0000
-0.3010 EIGHT ZERO 0.0000
-0.3010 EIGHTEEN FOURTEEN 0.0000
-0.3010 EIGHTY TEN 0.0000
-0.3010 ELEVEN THOUSAND 0.0000
-0.3010 EYES NOSE 0.0000
-0.3010 FACE FOREHEAD 0.0000
-0.6021 FEEL ANY 0.0000
-0.6021 FEEL THE -0.0969
-0.3010 FIFTEEN SIXTY 0.0000
-0.3010 FIFTY NINETY 0.0000
-0.3010 FINGERS CHEST 0.0000
-0.3010 FIVE TWENTY 0.0000
-0.3010 FOOT HAND 0.0000
-0.3010 FOREARM WRIST 0.0000
-0.3010 FOREHEAD CHIN 0.0000
-0.3010 FORTY FIFTEEN 0.0000
-0.3010 FOUR SIXTEEN 0.0000
-0.3010 FOURTEEN MILLION 0.0000
-0.3010 FRONT </s> -0.3010
-0.3010 HAND FINGERS 0.0000
-0.3010 HEAD SHOULDERS 0.0000
-0.3010 HIP FOREARM 0.0000
-0.6021 HOW DOES 0.0000
-0.6021 HOW SEVERE 0.0000
-0.3010 HUNDRED FIFTY 0.0000
-0.3010 IS THE -0.0969
-0.3010 KNEES AND 0.0000
-0.3010 LEGS CALVES 0.0000
-0.3010 LITTLE BIG 0.0000
-0.3010 LOOK? </s> -0.3010
-0.3010 LOWER BUTT 0.0000
-0.3010 MILD LITTLE 0.0000
-0.3010 MILLION SEVENTEEN 0.0000
-0.3010 MOUTH THROAT 0.0000
-0.3010 MOVE WALK 0.0000
-0.3010 MOVING WALKING 0.0000
-0.3010 NINE HUNDRED 0.0000
-0.3010 NINETEEN SEVENTY 0.0000
-0.3010 NINETY SEVEN 0.0000
-0.3010 NO MOVING 0.0000
-0.3010 NOSE FACE 0.0000
-0.3010 ONE EIGHTEEN 0.0000
-0.3010 PAIN? </s> -0.3010
-0.3010 PATIENT LOOK? 0.0000
-0.3010 RUN SIT 0.0000
-0.3010 SEVEN TWO 0.0000
-0.3010 SEVENTEEN TWELVE 0.0000
-0.3010 SEVENTY ONE 0.0000
-0.3010 SEVERE IS 0.0000
-0.3010 SHARP DULL 0.0000
-0.3010 SHOULDERS KNEES 0.0000
-0.3010 SIT SHARP 0.0000
-0.3010 SIX NINETEEN 0.0000
-0.3010 SIXTEEN EIGHTY 0.0000
-0.3010 SIXTY SIX 0.0000
-0.3010 SLEEP RUN 0.0000
-0.3010 STOMACH FRONT 0.0000
-0.3010 STRETCH BEND 0.0000
-0.3010 STRETCHING MOVE 0.0000
-0.3010 TALK BREATHE 0.0000
-0.3010 TALKING BREATHING 0.0000
-0.3010 TEN FIVE 0.0000
-0.4260 THE PAIN? 0.0000
-0.9031 THE PATIENT 0.0000
-0.3010 THIRTEEN EIGHT 0.0000
-0.3010 THIRTY </s> -0.3010
-0.3010 THOUSAND THIRTY 0.0000
-0.3010 THREE THIRTEEN 0.0000
-0.3010 THROAT STOMACH 0.0000
-0.6021 TOES FOOT 0.0000
-0.6021 TOES LEGS 0.0000
-0.3010 TWELVE ELEVEN 0.0000
-0.3010 TWENTY FORTY 0.0000
-0.3010 TWO THREE 0.0000
-0.3010 UPPER LOWER 0.0000
-0.3010 WALK TALK 0.0000
-0.3010 WALKING TALKING 0.0000
-0.3010 WHAT ACTIONS 0.0000
-0.3010 WHERE DO 0.0000
-0.3010 WRIST EYES 0.0000
-0.3010 YES NO 0.0000
-0.3010 YOU FEEL 0.0000
-0.3010 ZERO FOUR 0.0000

\3-grams:
-0.3010 <s> DO YOU
-0.6021 <s> HOW DOES
-0.6021 <s> HOW SEVERE
-0.3010 <s> NINE HUNDRED
-0.3010 <s> WHAT ACTIONS
-0.3010 <s> WHERE DO
-0.3010 <s> YES NO
-0.3010 ACTIONS CAUSE THE
-0.3010 AND TOES LEGS
-0.3010 ANY PAIN? </s>
-0.3010 BACK UPPER LOWER
-0.3010 BEND SLEEP RUN
-0.3010 BIG HEAD SHOULDERS
-0.3010 BREATH STRETCH BEND
-0.3010 BREATHE BREATH STRETCH
-0.3010 BREATHING STRETCHING MOVE
-0.3010 BUTT HIP FOREARM
-0.3010 CALFS TOES FOOT
-0.3010 CALVES CALFS TOES
-0.3010 CAUSE THE PAIN?
-0.3010 CHEST BACK UPPER
-0.3010 CHIN MOUTH THROAT
-0.3010 DO YOU FEEL
-0.3010 DOES THE PATIENT
-0.3010 DULL MILD LITTLE
-0.3010 EIGHT ZERO FOUR
-0.3010 EIGHTEEN FOURTEEN MILLION
-0.3010 EIGHTY TEN FIVE
-0.3010 ELEVEN THOUSAND THIRTY
-0.3010 EYES NOSE FACE
-0.3010 FACE FOREHEAD CHIN
-0.3010 FEEL ANY PAIN?
-0.3010 FEEL THE PAIN?
-0.3010 FIFTEEN SIXTY SIX
-0.3010 FIFTY NINETY SEVEN
-0.3010 FINGERS CHEST BACK
-0.3010 FIVE TWENTY FORTY
-0.3010 FOOT HAND FINGERS
-0.3010 FOREARM WRIST EYES
-0.3010 FOREHEAD CHIN MOUTH
-0.3010 FORTY FIFTEEN SIXTY
-0.3010 FOUR SIXTEEN EIGHTY
-0.3010 FOURTEEN MILLION SEVENTEEN
-0.3010 HAND FINGERS CHEST
-0.3010 HEAD SHOULDERS KNEES
-0.3010 HIP FOREARM WRIST
-0.3010 HOW DOES THE
-0.3010 HOW SEVERE IS
-0.3010 HUNDRED FIFTY NINETY
-0.3010 IS THE PAIN?
-0.3010 KNEES AND TOES
-0.3010 LEGS CALVES CALFS
-0.3010 LITTLE BIG HEAD
-0.3010 LOWER BUTT HIP
-0.3010 MILD LITTLE BIG
-0.3010 MILLION SEVENTEEN TWELVE
-0.3010 MOUTH THROAT STOMACH
-0.3010 MOVE WALK TALK
-0.3010 MOVING WALKING TALKING
-0.3010 NINE HUNDRED FIFTY
-0.3010 NINETEEN SEVENTY ONE
-0.3010 NINETY SEVEN TWO
-0.3010 NO MOVING WALKING
-0.3010 NOSE FACE FOREHEAD
-0.3010 ONE EIGHTEEN FOURTEEN
-0.3010 PATIENT LOOK? </s>
-0.3010 RUN SIT SHARP
-0.3010 SEVEN TWO THREE
-0.3010 SEVENTEEN TWELVE ELEVEN
-0.3010 SEVENTY ONE EIGHTEEN
-0.3010 SEVERE IS THE
-0.3010 SHARP DULL MILD
-0.3010 SHOULDERS KNEES AND
-0.3010 SIT SHARP DULL
-0.3010 SIX NINETEEN SEVENTY
-0.3010 SIXTEEN EIGHTY TEN
-0.3010 SIXTY SIX NINETEEN
-0.3010 SLEEP RUN SIT
-0.3010 STOMACH FRONT </s>
-0.3010 STRETCH BEND SLEEP
-0.3010 STRETCHING MOVE WALK
-0.3010 TALK BREATHE BREATH
-0.3010 TALKING BREATHING STRETCHING
-0.3010 TEN FIVE TWENTY
-0.3010 THE PAIN? </s>
-0.3010 THE PATIENT LOOK?
-0.3010 THIRTEEN EIGHT ZERO
-0.3010 THOUSAND THIRTY </s>
-0.3010 THREE THIRTEEN EIGHT
-0.3010 THROAT STOMACH FRONT
-0.3010 TOES FOOT HAND
-0.3010 TOES LEGS CALVES
-0.3010 TWELVE ELEVEN THOUSAND
-0.3010 TWENTY FORTY FIFTEEN
-0.3010 TWO THREE THIRTEEN
-0.3010 UPPER LOWER BUTT
-0.3010 WALK TALK BREATHE
-0.3010 WALKING TALKING BREATHING
-0.3010 WHAT ACTIONS CAUSE
-0.3010 WHERE DO YOU
-0.3010 WRIST EYES NOSE
-0.3010 YES NO MOVING
-0.6021 YOU FEEL ANY
-0.6021 YOU FEEL THE
-0.3010 ZERO FOUR SIXTEEN

\end\
