Language model created by QuickLM on Sat Feb 23 16:54:16 EST 2019
Copyright (c) 1996-2010 Carnegie Mellon University and Alexander I. Rudnicky

The model is in standard ARPA format, designed by Doug Paul while he was at MITRE.

The code that was used to produce this language model is available in Open Source.
Please visit http://www.speech.cs.cmu.edu/tools/ for more information

The (fixed) discount mass is 0.5. The backoffs are computed using the ratio method.
This model based on a corpus of 7 sentences and 55 words

\data\
ngram 1=55
ngram 2=64
ngram 3=58

\1-grams:
-1.3133 </s> -0.3010
-1.3133 <s> -0.2730
-2.1584 A -0.2980
-2.1584 ARE -0.2980
-2.1584 BEING -0.2980
-2.1584 BEST -0.2980
-2.1584 BILLION -0.2980
-2.1584 EIGHT -0.2980
-2.1584 EIGHTEEN -0.2980
-2.1584 EIGHTY -0.2980
-2.1584 ELEVEN -0.2980
-2.1584 FATIGUE -0.2980
-2.1584 FEELING -0.2794
-2.1584 FIFTEEN -0.2980
-2.1584 FIFTY -0.2980
-1.8573 FIVE -0.2950
-2.1584 FORTY -0.2980
-2.1584 FOUR -0.2950
-2.1584 FOURTEEN -0.2980
-2.1584 FROM -0.2950
-1.8573 GRIP -0.2950
-2.1584 HAND -0.2950
-2.1584 HOW -0.2980
-2.1584 HUNDRED -0.2980
-2.1584 LEFT -0.2980
-2.1584 MILLION -0.2980
-2.1584 NINE -0.2950
-2.1584 NINETEEN -0.2980
-2.1584 NINETY -0.2950
-2.1584 ON -0.2980
-1.8573 ONE -0.2950
-2.1584 RIGHT -0.2794
-2.1584 SCALE -0.2794
-2.1584 SEVEN -0.2980
-2.1584 SEVENTEEN -0.2980
-2.1584 SEVENTY -0.2980
-2.1584 SIX -0.2980
-2.1584 SIXTEEN -0.2980
-2.1584 SIXTY -0.2980
-1.8573 STRENGTH -0.2950
-1.8573 TEN -0.2950
-2.1584 TEST -0.2794
-2.1584 THIRTEEN -0.2980
-2.1584 THIRTY -0.2980
-2.1584 THOUSAND -0.2794
-2.1584 THREE -0.2980
-2.1584 TO -0.2950
-2.1584 TWELVE -0.2980
-2.1584 TWENTY -0.2980
-2.1584 TWO -0.2980
-2.1584 VALUES -0.2980
-2.1584 VERY -0.2794
-2.1584 WORST -0.2794
-2.1584 YOU -0.2980
-2.1584 ZERO -0.2980

\2-grams:
-1.1461 <s> BEING 0.0000
-1.1461 <s> FATIGUE 0.0000
-1.1461 <s> GRIP 0.0000
-1.1461 <s> HOW 0.0000
-1.1461 <s> LEFT 0.0000
-1.1461 <s> TEN -0.1761
-1.1461 <s> VALUES 0.0000
-0.3010 A SCALE 0.0000
-0.3010 ARE YOU 0.0000
-0.3010 BEING BEST 0.0000
-0.3010 BEST WORST 0.0000
-0.3010 BILLION MILLION 0.0000
-0.3010 EIGHT NINE 0.0000
-0.3010 EIGHTEEN NINETEEN 0.0000
-0.3010 EIGHTY NINETY 0.0000
-0.3010 ELEVEN TWELVE 0.0000
-0.3010 FATIGUE VERY 0.0000
-0.3010 FEELING </s> -0.3010
-0.3010 FIFTEEN SIXTEEN 0.0000
-0.3010 FIFTY SIXTY 0.0000
-0.6021 FIVE ON 0.0000
-0.6021 FIVE SIX 0.0000
-0.3010 FORTY FIFTY 0.0000
-0.3010 FOUR FIVE -0.1761
-0.3010 FOURTEEN FIFTEEN 0.0000
-0.3010 FROM ONE -0.1761
-0.3010 GRIP STRENGTH 0.0000
-0.3010 HAND GRIP 0.0000
-0.3010 HOW ARE 0.0000
-0.3010 HUNDRED ZERO 0.0000
-0.3010 LEFT HAND 0.0000
-0.3010 MILLION THOUSAND 0.0000
-0.3010 NINE TEN -0.1761
-0.3010 NINETEEN HUNDRED 0.0000
-0.3010 NINETY ONE -0.1761
-0.3010 ON A 0.0000
-0.6021 ONE TO 0.0000
-0.6021 ONE TWO 0.0000
-0.3010 RIGHT </s> -0.3010
-0.3010 SCALE </s> -0.3010
-0.3010 SEVEN EIGHT 0.0000
-0.3010 SEVENTEEN EIGHTEEN 0.0000
-0.3010 SEVENTY EIGHTY 0.0000
-0.3010 SIX SEVEN 0.0000
-0.3010 SIXTEEN SEVENTEEN 0.0000
-0.3010 SIXTY SEVENTY 0.0000
-0.6021 STRENGTH RIGHT 0.0000
-0.6021 STRENGTH TEST 0.0000
-0.6021 TEN ELEVEN 0.0000
-0.6021 TEN TWENTY 0.0000
-0.3010 TEST </s> -0.3010
-0.3010 THIRTEEN FOURTEEN 0.0000
-0.3010 THIRTY FORTY 0.0000
-0.3010 THOUSAND </s> -0.3010
-0.3010 THREE FOUR 0.0000
-0.3010 TO FIVE -0.1761
-0.3010 TWELVE THIRTEEN 0.0000
-0.3010 TWENTY THIRTY 0.0000
-0.3010 TWO THREE 0.0000
-0.3010 VALUES FROM 0.0000
-0.3010 VERY </s> -0.3010
-0.3010 WORST </s> -0.3010
-0.3010 YOU FEELING 0.0000
-0.3010 ZERO BILLION 0.0000

\3-grams:
-0.3010 <s> BEING BEST
-0.3010 <s> FATIGUE VERY
-0.3010 <s> GRIP STRENGTH
-0.3010 <s> HOW ARE
-0.3010 <s> LEFT HAND
-0.3010 <s> TEN TWENTY
-0.3010 <s> VALUES FROM
-0.3010 A SCALE </s>
-0.3010 ARE YOU FEELING
-0.3010 BEING BEST WORST
-0.3010 BEST WORST </s>
-0.3010 BILLION MILLION THOUSAND
-0.3010 EIGHT NINE TEN
-0.3010 EIGHTEEN NINETEEN HUNDRED
-0.3010 EIGHTY NINETY ONE
-0.3010 ELEVEN TWELVE THIRTEEN
-0.3010 FATIGUE VERY </s>
-0.3010 FIFTEEN SIXTEEN SEVENTEEN
-0.3010 FIFTY SIXTY SEVENTY
-0.3010 FIVE ON A
-0.3010 FIVE SIX SEVEN
-0.3010 FORTY FIFTY SIXTY
-0.3010 FOUR FIVE SIX
-0.3010 FOURTEEN FIFTEEN SIXTEEN
-0.3010 FROM ONE TO
-0.6021 GRIP STRENGTH RIGHT
-0.6021 GRIP STRENGTH TEST
-0.3010 HAND GRIP STRENGTH
-0.3010 HOW ARE YOU
-0.3010 HUNDRED ZERO BILLION
-0.3010 LEFT HAND GRIP
-0.3010 MILLION THOUSAND </s>
-0.3010 NINE TEN ELEVEN
-0.3010 NINETEEN HUNDRED ZERO
-0.3010 NINETY ONE TWO
-0.3010 ON A SCALE
-0.3010 ONE TO FIVE
-0.3010 ONE TWO THREE
-0.3010 SEVEN EIGHT NINE
-0.3010 SEVENTEEN EIGHTEEN NINETEEN
-0.3010 SEVENTY EIGHTY NINETY
-0.3010 SIX SEVEN EIGHT
-0.3010 SIXTEEN SEVENTEEN EIGHTEEN
-0.3010 SIXTY SEVENTY EIGHTY
-0.3010 STRENGTH RIGHT </s>
-0.3010 STRENGTH TEST </s>
-0.3010 TEN ELEVEN TWELVE
-0.3010 TEN TWENTY THIRTY
-0.3010 THIRTEEN FOURTEEN FIFTEEN
-0.3010 THIRTY FORTY FIFTY
-0.3010 THREE FOUR FIVE
-0.3010 TO FIVE ON
-0.3010 TWELVE THIRTEEN FOURTEEN
-0.3010 TWENTY THIRTY FORTY
-0.3010 TWO THREE FOUR
-0.3010 VALUES FROM ONE
-0.3010 YOU FEELING </s>
-0.3010 ZERO BILLION MILLION

\end\
